<?xml version="1.0"?>
<opencv_storage>
<cascade>
  <stageType>BOOST</stageType>
  <featureType>HAAR</featureType>
  <height>30</height>
  <width>30</width>
  <stageParams>
    <boostType>GAB</boostType>
    <minHitRate>9.9500000476837158e-01</minHitRate>
    <maxFalseAlarm>5.0000000000000000e-01</maxFalseAlarm>
    <weightTrimRate>9.4999999999999996e-01</weightTrimRate>
    <maxDepth>1</maxDepth>
    <maxWeakCount>100</maxWeakCount></stageParams>
  <featureParams>
    <maxCatCount>0</maxCatCount>
    <featSize>1</featSize>
    <mode>BASIC</mode></featureParams>
  <stageNum>10</stageNum>
  <stages>
    <!-- stage 0 -->
    <_>
      <maxWeakCount>8</maxWeakCount>
      <stageThreshold>-9.1678899526596069e-01</stageThreshold>
      <weakClassifiers>
        <_>
          <internalNodes>
            0 -1 9 -1.2879899144172668e-01</internalNodes>
          <leafValues>
            -4.2135921120643616e-01 6.3243246078491211e-01</leafValues></_>
        <_>
          <internalNodes>
            0 -1 75 2.0382676739245653e-03</internalNodes>
          <leafValues>
            -2.3446217179298401e-01 7.9214918613433838e-01</leafValues></_>
        <_>
          <internalNodes>
            0 -1 55 -8.8390591554343700e-04</internalNodes>
          <leafValues>
            6.0559797286987305e-01 -2.8383225202560425e-01</leafValues></_>
        <_>
          <internalNodes>
            0 -1 28 2.1113147959113121e-03</internalNodes>
          <leafValues>
            -1.7413650453090668e-01 6.5483480691909790e-01</leafValues></_>
        <_>
          <internalNodes>
            0 -1 98 9.6168147865682840e-04</internalNodes>
          <leafValues>
            -3.1865829229354858e-01 4.0410977602005005e-01</leafValues></_>
        <_>
          <internalNodes>
            0 -1 69 3.4028235822916031e-03</internalNodes>
          <leafValues>
            -2.0638279616832733e-01 5.8847874402999878e-01</leafValues></_>
        <_>
          <internalNodes>
            0 -1 70 -2.5297570973634720e-03</internalNodes>
          <leafValues>
            5.0948780775070190e-01 -2.7415233850479126e-01</leafValues></_>
        <_>
          <internalNodes>
            0 -1 14 3.6029660259373486e-04</internalNodes>
          <leafValues>
            2.7582105994224548e-01 -5.2143502235412598e-01</leafValues></_></weakClassifiers></_>
    <!-- stage 1 -->
    <_>
      <maxWeakCount>12</maxWeakCount>
      <stageThreshold>-9.0784972906112671e-01</stageThreshold>
      <weakClassifiers>
        <_>
          <internalNodes>
            0 -1 79 1.7870449228212237e-03</internalNodes>
          <leafValues>
            -3.7864077091217041e-01 5.1351350545883179e-01</leafValues></_>
        <_>
          <internalNodes>
            0 -1 59 4.6840757131576538e-02</internalNodes>
          <leafValues>
            -2.9014626145362854e-01 5.2973061800003052e-01</leafValues></_>
        <_>
          <internalNodes>
            0 -1 122 1.8860122654587030e-03</internalNodes>
          <leafValues>
            -2.5045463442802429e-01 5.4621893167495728e-01</leafValues></_>
        <_>
          <internalNodes>
            0 -1 126 -2.0333444699645042e-03</internalNodes>
          <leafValues>
            7.6248782873153687e-01 -1.5417008101940155e-01</leafValues></_>
        <_>
          <internalNodes>
            0 -1 22 3.1836836133152246e-03</internalNodes>
          <leafValues>
            -1.5040688216686249e-01 6.8794012069702148e-01</leafValues></_>
        <_>
          <internalNodes>
            0 -1 8 -3.7085860967636108e-03</internalNodes>
          <leafValues>
            6.4957809448242188e-01 -2.2831785678863525e-01</leafValues></_>
        <_>
          <internalNodes>
            0 -1 25 1.8221162259578705e-02</internalNodes>
          <leafValues>
            -1.0723288357257843e-01 7.5558614730834961e-01</leafValues></_>
        <_>
          <internalNodes>
            0 -1 34 -5.1810182631015778e-03</internalNodes>
          <leafValues>
            4.9130246043205261e-01 -2.5407820940017700e-01</leafValues></_>
        <_>
          <internalNodes>
            0 -1 86 5.3077083081007004e-02</internalNodes>
          <leafValues>
            1.7354109883308411e-01 -7.7392768859863281e-01</leafValues></_>
        <_>
          <internalNodes>
            0 -1 105 1.3986290432512760e-03</internalNodes>
          <leafValues>
            -2.5578582286834717e-01 5.2514439821243286e-01</leafValues></_>
        <_>
          <internalNodes>
            0 -1 46 -2.0100572146475315e-03</internalNodes>
          <leafValues>
            5.6794035434722900e-01 -1.7448027431964874e-01</leafValues></_>
        <_>
          <internalNodes>
            0 -1 73 -1.9457273883745074e-03</internalNodes>
          <leafValues>
            5.1610171794891357e-01 -2.1319283545017242e-01</leafValues></_></weakClassifiers></_>
    <!-- stage 2 -->
    <_>
      <maxWeakCount>14</maxWeakCount>
      <stageThreshold>-1.0194705724716187e+00</stageThreshold>
      <weakClassifiers>
        <_>
          <internalNodes>
            0 -1 41 -5.0496056675910950e-02</internalNodes>
          <leafValues>
            4.9462366104125977e-01 -3.7354084849357605e-01</leafValues></_>
        <_>
          <internalNodes>
            0 -1 57 1.0646324604749680e-02</internalNodes>
          <leafValues>
            -1.9337417185306549e-01 6.4881068468093872e-01</leafValues></_>
        <_>
          <internalNodes>
            0 -1 106 -6.1659961938858032e-02</internalNodes>
          <leafValues>
            -8.7309199571609497e-01 1.4213009178638458e-01</leafValues></_>
        <_>
          <internalNodes>
            0 -1 81 2.0899972878396511e-03</internalNodes>
          <leafValues>
            -2.0518638193607330e-01 5.2741849422454834e-01</leafValues></_>
        <_>
          <internalNodes>
            0 -1 116 -1.1674399138428271e-04</internalNodes>
          <leafValues>
            -6.2827467918395996e-01 1.5574865043163300e-01</leafValues></_>
        <_>
          <internalNodes>
            0 -1 125 1.2123857159167528e-03</internalNodes>
          <leafValues>
            -1.4279896020889282e-01 6.4894706010818481e-01</leafValues></_>
        <_>
          <internalNodes>
            0 -1 113 1.9092552363872528e-02</internalNodes>
          <leafValues>
            -1.6112931072711945e-01 5.5988842248916626e-01</leafValues></_>
        <_>
          <internalNodes>
            0 -1 117 3.0843066051602364e-03</internalNodes>
          <leafValues>
            -1.9539451599121094e-01 5.2688002586364746e-01</leafValues></_>
        <_>
          <internalNodes>
            0 -1 93 -2.2792746312916279e-03</internalNodes>
          <leafValues>
            -4.3387508392333984e-01 2.4302932620048523e-01</leafValues></_>
        <_>
          <internalNodes>
            0 -1 40 -9.1863155830651522e-04</internalNodes>
          <leafValues>
            4.1004779934883118e-01 -2.4149036407470703e-01</leafValues></_>
        <_>
          <internalNodes>
            0 -1 15 1.4356939122080803e-02</internalNodes>
          <leafValues>
            1.6625958681106567e-01 -6.9300442934036255e-01</leafValues></_>
        <_>
          <internalNodes>
            0 -1 2 -2.1977047435939312e-04</internalNodes>
          <leafValues>
            -6.2738358974456787e-01 1.4508441090583801e-01</leafValues></_>
        <_>
          <internalNodes>
            0 -1 125 -4.7839281614869833e-04</internalNodes>
          <leafValues>
            5.0965648889541626e-01 -2.1630257368087769e-01</leafValues></_>
        <_>
          <internalNodes>
            0 -1 85 4.3701082468032837e-03</internalNodes>
          <leafValues>
            -1.1713925004005432e-01 7.3583143949508667e-01</leafValues></_></weakClassifiers></_>
    <!-- stage 3 -->
    <_>
      <maxWeakCount>11</maxWeakCount>
      <stageThreshold>-8.1790637969970703e-01</stageThreshold>
      <weakClassifiers>
        <_>
          <internalNodes>
            0 -1 37 4.1963444091379642e-03</internalNodes>
          <leafValues>
            -3.8494622707366943e-01 3.3617022633552551e-01</leafValues></_>
        <_>
          <internalNodes>
            0 -1 131 -1.1990469647571445e-04</internalNodes>
          <leafValues>
            -5.8473598957061768e-01 1.5922869741916656e-01</leafValues></_>
        <_>
          <internalNodes>
            0 -1 23 -5.5597033351659775e-03</internalNodes>
          <leafValues>
            5.8762013912200928e-01 -1.5828523039817810e-01</leafValues></_>
        <_>
          <internalNodes>
            0 -1 61 -2.3533511906862259e-02</internalNodes>
          <leafValues>
            7.1543604135513306e-01 -1.1520765721797943e-01</leafValues></_>
        <_>
          <internalNodes>
            0 -1 123 1.3051009736955166e-03</internalNodes>
          <leafValues>
            -9.5265321433544159e-02 7.5940585136413574e-01</leafValues></_>
        <_>
          <internalNodes>
            0 -1 51 2.5647717993706465e-03</internalNodes>
          <leafValues>
            -1.5317478775978088e-01 5.1232343912124634e-01</leafValues></_>
        <_>
          <internalNodes>
            0 -1 68 -1.4586603268980980e-02</internalNodes>
          <leafValues>
            -9.0640282630920410e-01 1.2448260933160782e-01</leafValues></_>
        <_>
          <internalNodes>
            0 -1 67 -2.2032912820577621e-03</internalNodes>
          <leafValues>
            -8.3786118030548096e-01 5.1121450960636139e-02</leafValues></_>
        <_>
          <internalNodes>
            0 -1 112 1.0953993478324264e-04</internalNodes>
          <leafValues>
            2.2356031835079193e-01 -3.6430802941322327e-01</leafValues></_>
        <_>
          <internalNodes>
            0 -1 110 -1.5127957158256322e-04</internalNodes>
          <leafValues>
            -5.7442504167556763e-01 1.4058618247509003e-01</leafValues></_>
        <_>
          <internalNodes>
            0 -1 96 -7.7917960879858583e-05</internalNodes>
          <leafValues>
            -4.1665008664131165e-01 1.8347127735614777e-01</leafValues></_></weakClassifiers></_>
    <!-- stage 4 -->
    <_>
      <maxWeakCount>13</maxWeakCount>
      <stageThreshold>-1.0183575153350830e+00</stageThreshold>
      <weakClassifiers>
        <_>
          <internalNodes>
            0 -1 11 -1.5995264053344727e-02</internalNodes>
          <leafValues>
            4.2857143282890320e-01 -3.1354358792304993e-01</leafValues></_>
        <_>
          <internalNodes>
            0 -1 64 6.7461859434843063e-03</internalNodes>
          <leafValues>
            -1.7922604084014893e-01 4.2954981327056885e-01</leafValues></_>
        <_>
          <internalNodes>
            0 -1 10 3.8948906585574150e-03</internalNodes>
          <leafValues>
            -2.3338763415813446e-01 5.0154054164886475e-01</leafValues></_>
        <_>
          <internalNodes>
            0 -1 16 -1.5743305906653404e-02</internalNodes>
          <leafValues>
            6.1150711774826050e-01 -1.0582857578992844e-01</leafValues></_>
        <_>
          <internalNodes>
            0 -1 4 -1.2176680320408195e-04</internalNodes>
          <leafValues>
            -4.3590483069419861e-01 2.1304106712341309e-01</leafValues></_>
        <_>
          <internalNodes>
            0 -1 120 -1.8491446971893311e-03</internalNodes>
          <leafValues>
            7.1227502822875977e-01 -9.9323824048042297e-02</leafValues></_>
        <_>
          <internalNodes>
            0 -1 121 1.3409159146249294e-03</internalNodes>
          <leafValues>
            -1.9810935854911804e-01 5.4498577117919922e-01</leafValues></_>
        <_>
          <internalNodes>
            0 -1 91 -2.6888046413660049e-03</internalNodes>
          <leafValues>
            4.3119847774505615e-01 -2.2125333547592163e-01</leafValues></_>
        <_>
          <internalNodes>
            0 -1 31 2.6659574359655380e-02</internalNodes>
          <leafValues>
            -1.2800581753253937e-01 6.4759469032287598e-01</leafValues></_>
        <_>
          <internalNodes>
            0 -1 101 2.8995857574045658e-03</internalNodes>
          <leafValues>
            -2.5047180056571960e-01 4.2908534407615662e-01</leafValues></_>
        <_>
          <internalNodes>
            0 -1 62 2.8433268889784813e-03</internalNodes>
          <leafValues>
            1.6202755272388458e-01 -7.1890813112258911e-01</leafValues></_>
        <_>
          <internalNodes>
            0 -1 45 5.7565309107303619e-03</internalNodes>
          <leafValues>
            9.4056993722915649e-02 -5.5078661441802979e-01</leafValues></_>
        <_>
          <internalNodes>
            0 -1 118 -2.1958176512271166e-04</internalNodes>
          <leafValues>
            -6.1683100461959839e-01 1.1280404031276703e-01</leafValues></_></weakClassifiers></_>
    <!-- stage 5 -->
    <_>
      <maxWeakCount>12</maxWeakCount>
      <stageThreshold>-8.1443411111831665e-01</stageThreshold>
      <weakClassifiers>
        <_>
          <internalNodes>
            0 -1 6 -1.0485002771019936e-02</internalNodes>
          <leafValues>
            4.2500001192092896e-01 -3.1111112236976624e-01</leafValues></_>
        <_>
          <internalNodes>
            0 -1 127 -1.4450136222876608e-04</internalNodes>
          <leafValues>
            -5.6091034412384033e-01 1.5208539366722107e-01</leafValues></_>
        <_>
          <internalNodes>
            0 -1 63 -2.8461508918553591e-04</internalNodes>
          <leafValues>
            -5.5799156427383423e-01 1.5726171433925629e-01</leafValues></_>
        <_>
          <internalNodes>
            0 -1 56 1.0426491498947144e-01</internalNodes>
          <leafValues>
            -1.5271726250648499e-01 5.3167712688446045e-01</leafValues></_>
        <_>
          <internalNodes>
            0 -1 97 -4.3071759864687920e-03</internalNodes>
          <leafValues>
            4.6960166096687317e-01 -2.0214849710464478e-01</leafValues></_>
        <_>
          <internalNodes>
            0 -1 89 4.8875168431550264e-04</internalNodes>
          <leafValues>
            -3.3983013033866882e-01 2.9828736186027527e-01</leafValues></_>
        <_>
          <internalNodes>
            0 -1 52 7.4066468514502048e-03</internalNodes>
          <leafValues>
            1.6431547701358795e-01 -6.7874830961227417e-01</leafValues></_>
        <_>
          <internalNodes>
            0 -1 24 -2.3625901667401195e-04</internalNodes>
          <leafValues>
            -6.3347178697586060e-01 8.9470759034156799e-02</leafValues></_>
        <_>
          <internalNodes>
            0 -1 36 -4.9623794853687286e-02</internalNodes>
          <leafValues>
            -1.2622371315956116e-01 7.0652574300765991e-01</leafValues></_>
        <_>
          <internalNodes>
            0 -1 21 9.6820117905735970e-03</internalNodes>
          <leafValues>
            -1.8452277779579163e-01 4.4720828533172607e-01</leafValues></_>
        <_>
          <internalNodes>
            0 -1 94 5.6044995289994404e-05</internalNodes>
          <leafValues>
            2.7539217472076416e-01 -3.8363769650459290e-01</leafValues></_>
        <_>
          <internalNodes>
            0 -1 20 -4.8385104164481163e-03</internalNodes>
          <leafValues>
            6.3604402542114258e-01 -1.5682432055473328e-01</leafValues></_></weakClassifiers></_>
    <!-- stage 6 -->
    <_>
      <maxWeakCount>18</maxWeakCount>
      <stageThreshold>-9.9039995670318604e-01</stageThreshold>
      <weakClassifiers>
        <_>
          <internalNodes>
            0 -1 30 -3.6634400486946106e-02</internalNodes>
          <leafValues>
            5.9633028507232666e-01 -2.7918782830238342e-01</leafValues></_>
        <_>
          <internalNodes>
            0 -1 133 5.3604948334395885e-05</internalNodes>
          <leafValues>
            1.6844317317008972e-01 -4.2149916291236877e-01</leafValues></_>
        <_>
          <internalNodes>
            0 -1 90 1.8431867938488722e-03</internalNodes>
          <leafValues>
            -1.7685160040855408e-01 4.4049489498138428e-01</leafValues></_>
        <_>
          <internalNodes>
            0 -1 129 2.6844902895390987e-03</internalNodes>
          <leafValues>
            -1.2109673768281937e-01 6.3286507129669189e-01</leafValues></_>
        <_>
          <internalNodes>
            0 -1 115 8.9143018703907728e-04</internalNodes>
          <leafValues>
            -2.6041939854621887e-01 2.8925928473472595e-01</leafValues></_>
        <_>
          <internalNodes>
            0 -1 134 -2.0095920190215111e-03</internalNodes>
          <leafValues>
            -4.9330785870552063e-01 1.6752965748310089e-01</leafValues></_>
        <_>
          <internalNodes>
            0 -1 99 -3.7325695157051086e-03</internalNodes>
          <leafValues>
            4.5949721336364746e-01 -1.7284515500068665e-01</leafValues></_>
        <_>
          <internalNodes>
            0 -1 13 -2.1342342370189726e-04</internalNodes>
          <leafValues>
            -5.4227495193481445e-01 1.1500012874603271e-01</leafValues></_>
        <_>
          <internalNodes>
            0 -1 7 -2.3522658739238977e-03</internalNodes>
          <leafValues>
            7.1317589282989502e-01 -1.2005487829446793e-01</leafValues></_>
        <_>
          <internalNodes>
            0 -1 84 -2.9970128089189529e-03</internalNodes>
          <leafValues>
            -5.1370084285736084e-01 1.5999789535999298e-01</leafValues></_>
        <_>
          <internalNodes>
            0 -1 100 7.9036541283130646e-03</internalNodes>
          <leafValues>
            -2.1560993790626526e-01 3.8969835638999939e-01</leafValues></_>
        <_>
          <internalNodes>
            0 -1 107 1.6347512137144804e-03</internalNodes>
          <leafValues>
            -1.4785420894622803e-01 4.8786771297454834e-01</leafValues></_>
        <_>
          <internalNodes>
            0 -1 95 -2.9809981584548950e-02</internalNodes>
          <leafValues>
            -6.2442952394485474e-01 1.6264998912811279e-01</leafValues></_>
        <_>
          <internalNodes>
            0 -1 53 -6.6458224318921566e-03</internalNodes>
          <leafValues>
            5.3832477331161499e-01 -1.7475928366184235e-01</leafValues></_>
        <_>
          <internalNodes>
            0 -1 114 -1.0326649062335491e-03</internalNodes>
          <leafValues>
            4.3708133697509766e-01 -1.7824217677116394e-01</leafValues></_>
        <_>
          <internalNodes>
            0 -1 78 1.4756008749827743e-04</internalNodes>
          <leafValues>
            2.4458834528923035e-01 -3.3071270585060120e-01</leafValues></_>
        <_>
          <internalNodes>
            0 -1 5 -3.0351821333169937e-03</internalNodes>
          <leafValues>
            4.2901337146759033e-01 -2.0518827438354492e-01</leafValues></_>
        <_>
          <internalNodes>
            0 -1 29 -2.1055001765489578e-02</internalNodes>
          <leafValues>
            -7.2143387794494629e-01 1.4173263311386108e-01</leafValues></_></weakClassifiers></_>
    <!-- stage 7 -->
    <_>
      <maxWeakCount>16</maxWeakCount>
      <stageThreshold>-1.0813187360763550e+00</stageThreshold>
      <weakClassifiers>
        <_>
          <internalNodes>
            0 -1 111 -1.0449973633512855e-03</internalNodes>
          <leafValues>
            -5.4929578304290771e-01 3.4907598048448563e-02</leafValues></_>
        <_>
          <internalNodes>
            0 -1 82 8.3618313074111938e-03</internalNodes>
          <leafValues>
            -1.8173006176948547e-01 4.3591243028640747e-01</leafValues></_>
        <_>
          <internalNodes>
            0 -1 132 1.1269465903751552e-04</internalNodes>
          <leafValues>
            1.5579594671726227e-01 -4.5935675501823425e-01</leafValues></_>
        <_>
          <internalNodes>
            0 -1 50 2.5372183881700039e-03</internalNodes>
          <leafValues>
            -1.2118603289127350e-01 5.1369780302047729e-01</leafValues></_>
        <_>
          <internalNodes>
            0 -1 109 3.3141307532787323e-02</internalNodes>
          <leafValues>
            1.2076397985219955e-01 -5.4920744895935059e-01</leafValues></_>
        <_>
          <internalNodes>
            0 -1 74 2.9631660436280072e-04</internalNodes>
          <leafValues>
            -1.6714771091938019e-01 4.1670876741409302e-01</leafValues></_>
        <_>
          <internalNodes>
            0 -1 135 -2.1596266888082027e-03</internalNodes>
          <leafValues>
            -5.7861256599426270e-01 1.1421193182468414e-01</leafValues></_>
        <_>
          <internalNodes>
            0 -1 103 -7.2314180433750153e-03</internalNodes>
          <leafValues>
            6.4948898553848267e-01 -1.0468498617410660e-01</leafValues></_>
        <_>
          <internalNodes>
            0 -1 18 -2.5611612945795059e-03</internalNodes>
          <leafValues>
            5.5949920415878296e-01 -1.3024076819419861e-01</leafValues></_>
        <_>
          <internalNodes>
            0 -1 48 -1.6277641407214105e-04</internalNodes>
          <leafValues>
            -4.7615236043930054e-01 1.7045816779136658e-01</leafValues></_>
        <_>
          <internalNodes>
            0 -1 27 5.4339827329386026e-05</internalNodes>
          <leafValues>
            2.0407694578170776e-01 -4.3615278601646423e-01</leafValues></_>
        <_>
          <internalNodes>
            0 -1 80 4.6750751789659262e-04</internalNodes>
          <leafValues>
            -3.2158541679382324e-01 2.2093269228935242e-01</leafValues></_>
        <_>
          <internalNodes>
            0 -1 47 2.3273178376257420e-03</internalNodes>
          <leafValues>
            1.3835446536540985e-01 -6.6690331697463989e-01</leafValues></_>
        <_>
          <internalNodes>
            0 -1 26 5.8134377468377352e-04</internalNodes>
          <leafValues>
            -1.7169770598411560e-01 4.7328135371208191e-01</leafValues></_>
        <_>
          <internalNodes>
            0 -1 88 -9.1976998373866081e-03</internalNodes>
          <leafValues>
            6.5738409757614136e-01 -1.1257767677307129e-01</leafValues></_>
        <_>
          <internalNodes>
            0 -1 19 -4.3247938156127930e-03</internalNodes>
          <leafValues>
            4.8352083563804626e-01 -1.4176356792449951e-01</leafValues></_></weakClassifiers></_>
    <!-- stage 8 -->
    <_>
      <maxWeakCount>19</maxWeakCount>
      <stageThreshold>-9.3982070684432983e-01</stageThreshold>
      <weakClassifiers>
        <_>
          <internalNodes>
            0 -1 49 -2.7497515082359314e-02</internalNodes>
          <leafValues>
            4.9152541160583496e-01 -2.7147766947746277e-01</leafValues></_>
        <_>
          <internalNodes>
            0 -1 71 1.6887497622519732e-04</internalNodes>
          <leafValues>
            1.7277450859546661e-01 -4.6673139929771423e-01</leafValues></_>
        <_>
          <internalNodes>
            0 -1 124 9.6544208645354956e-05</internalNodes>
          <leafValues>
            1.5596091747283936e-01 -4.7641083598136902e-01</leafValues></_>
        <_>
          <internalNodes>
            0 -1 77 -2.0851772278547287e-03</internalNodes>
          <leafValues>
            3.2566455006599426e-01 -2.4338497221469879e-01</leafValues></_>
        <_>
          <internalNodes>
            0 -1 17 6.0397155582904816e-02</internalNodes>
          <leafValues>
            -1.8039616942405701e-01 5.6930464506149292e-01</leafValues></_>
        <_>
          <internalNodes>
            0 -1 72 -1.8478198035154492e-04</internalNodes>
          <leafValues>
            -4.6022447943687439e-01 1.8944436311721802e-01</leafValues></_>
        <_>
          <internalNodes>
            0 -1 87 -7.1121467044577003e-04</internalNodes>
          <leafValues>
            -6.8309229612350464e-01 1.0454972833395004e-01</leafValues></_>
        <_>
          <internalNodes>
            0 -1 108 -1.1603642487898469e-03</internalNodes>
          <leafValues>
            4.7832369804382324e-01 -1.5132018923759460e-01</leafValues></_>
        <_>
          <internalNodes>
            0 -1 102 4.3540596961975098e-03</internalNodes>
          <leafValues>
            -2.2129355370998383e-01 3.3579090237617493e-01</leafValues></_>
        <_>
          <internalNodes>
            0 -1 134 3.6463007563725114e-04</internalNodes>
          <leafValues>
            2.0041887462139130e-01 -4.0331482887268066e-01</leafValues></_>
        <_>
          <internalNodes>
            0 -1 136 -2.6941834948956966e-04</internalNodes>
          <leafValues>
            -6.4288920164108276e-01 1.2376300245523453e-01</leafValues></_>
        <_>
          <internalNodes>
            0 -1 58 1.5476722270250320e-02</internalNodes>
          <leafValues>
            -1.5673939883708954e-01 5.1705902814865112e-01</leafValues></_>
        <_>
          <internalNodes>
            0 -1 12 1.6717257676646113e-04</internalNodes>
          <leafValues>
            1.3671007752418518e-01 -5.3932178020477295e-01</leafValues></_>
        <_>
          <internalNodes>
            0 -1 119 -2.4067284539341927e-03</internalNodes>
          <leafValues>
            4.0831398963928223e-01 -1.9202594459056854e-01</leafValues></_>
        <_>
          <internalNodes>
            0 -1 0 1.9001979380846024e-02</internalNodes>
          <leafValues>
            -1.1937622725963593e-01 5.6142228841781616e-01</leafValues></_>
        <_>
          <internalNodes>
            0 -1 44 4.2051114141941071e-02</internalNodes>
          <leafValues>
            -1.9211192429065704e-01 4.0475147962570190e-01</leafValues></_>
        <_>
          <internalNodes>
            0 -1 39 -2.3985937237739563e-02</internalNodes>
          <leafValues>
            4.9722713232040405e-01 -1.6540695726871490e-01</leafValues></_>
        <_>
          <internalNodes>
            0 -1 92 -2.3106686770915985e-02</internalNodes>
          <leafValues>
            -1.3722991943359375e-01 5.6044328212738037e-01</leafValues></_>
        <_>
          <internalNodes>
            0 -1 35 2.4800486862659454e-03</internalNodes>
          <leafValues>
            -1.0227229446172714e-01 5.9344393014907837e-01</leafValues></_></weakClassifiers></_>
    <!-- stage 9 -->
    <_>
      <maxWeakCount>16</maxWeakCount>
      <stageThreshold>-9.7929584980010986e-01</stageThreshold>
      <weakClassifiers>
        <_>
          <internalNodes>
            0 -1 38 1.0302327573299408e-02</internalNodes>
          <leafValues>
            -2.6036483049392700e-01 5.8762884140014648e-01</leafValues></_>
        <_>
          <internalNodes>
            0 -1 65 4.2171531822532415e-04</internalNodes>
          <leafValues>
            1.1190144717693329e-01 -7.6555633544921875e-01</leafValues></_>
        <_>
          <internalNodes>
            0 -1 42 1.4922800660133362e-01</internalNodes>
          <leafValues>
            -1.4517015218734741e-01 5.3194099664688110e-01</leafValues></_>
        <_>
          <internalNodes>
            0 -1 1 2.1401379490271211e-04</internalNodes>
          <leafValues>
            9.8105333745479584e-02 -5.8376407623291016e-01</leafValues></_>
        <_>
          <internalNodes>
            0 -1 43 -1.4081230387091637e-02</internalNodes>
          <leafValues>
            2.4782960116863251e-01 -2.7564057707786560e-01</leafValues></_>
        <_>
          <internalNodes>
            0 -1 83 6.1455680988729000e-03</internalNodes>
          <leafValues>
            7.3323115706443787e-02 -8.9035868644714355e-01</leafValues></_>
        <_>
          <internalNodes>
            0 -1 76 3.1013698317110538e-03</internalNodes>
          <leafValues>
            1.3177148997783661e-01 -4.7199374437332153e-01</leafValues></_>
        <_>
          <internalNodes>
            0 -1 128 7.4684779974631965e-05</internalNodes>
          <leafValues>
            1.5781673789024353e-01 -4.3684300780296326e-01</leafValues></_>
        <_>
          <internalNodes>
            0 -1 33 -7.9714081948623061e-06</internalNodes>
          <leafValues>
            2.4685421586036682e-01 -2.6717412471771240e-01</leafValues></_>
        <_>
          <internalNodes>
            0 -1 130 -2.3514777421951294e-03</internalNodes>
          <leafValues>
            5.1123863458633423e-01 -1.3901175558567047e-01</leafValues></_>
        <_>
          <internalNodes>
            0 -1 60 2.3715087445452809e-04</internalNodes>
          <leafValues>
            1.2153854966163635e-01 -5.6268316507339478e-01</leafValues></_>
        <_>
          <internalNodes>
            0 -1 54 -1.8106642528437078e-05</internalNodes>
          <leafValues>
            2.7088642120361328e-01 -2.5309994816780090e-01</leafValues></_>
        <_>
          <internalNodes>
            0 -1 32 7.2955809533596039e-02</internalNodes>
          <leafValues>
            -1.2244214117527008e-01 5.8094346523284912e-01</leafValues></_>
        <_>
          <internalNodes>
            0 -1 104 1.1643148027360439e-02</internalNodes>
          <leafValues>
            -1.5186728537082672e-01 4.7215750813484192e-01</leafValues></_>
        <_>
          <internalNodes>
            0 -1 66 4.4390070252120495e-03</internalNodes>
          <leafValues>
            -1.0677256435155869e-01 6.4305442571640015e-01</leafValues></_>
        <_>
          <internalNodes>
            0 -1 3 1.0892120189964771e-04</internalNodes>
          <leafValues>
            2.0044702291488647e-01 -4.1599854826927185e-01</leafValues></_></weakClassifiers></_></stages>
  <features>
    <_>
      <rects>
        <_>
          0 0 8 16 -1.</_>
        <_>
          0 0 4 8 2.</_>
        <_>
          4 8 4 8 2.</_></rects>
      <tilted>0</tilted></_>
    <_>
      <rects>
        <_>
          0 1 2 1 -1.</_>
        <_>
          1 1 1 1 2.</_></rects>
      <tilted>0</tilted></_>
    <_>
      <rects>
        <_>
          0 1 1 2 -1.</_>
        <_>
          0 2 1 1 2.</_></rects>
      <tilted>0</tilted></_>
    <_>
      <rects>
        <_>
          0 3 1 2 -1.</_>
        <_>
          0 4 1 1 2.</_></rects>
      <tilted>0</tilted></_>
    <_>
      <rects>
        <_>
          0 3 2 2 -1.</_>
        <_>
          0 4 2 1 2.</_></rects>
      <tilted>0</tilted></_>
    <_>
      <rects>
        <_>
          0 5 8 4 -1.</_>
        <_>
          0 5 4 2 2.</_>
        <_>
          4 7 4 2 2.</_></rects>
      <tilted>0</tilted></_>
    <_>
      <rects>
        <_>
          0 7 4 7 -1.</_>
        <_>
          2 7 2 7 2.</_></rects>
      <tilted>0</tilted></_>
    <_>
      <rects>
        <_>
          0 8 2 8 -1.</_>
        <_>
          0 8 1 4 2.</_>
        <_>
          1 12 1 4 2.</_></rects>
      <tilted>0</tilted></_>
    <_>
      <rects>
        <_>
          0 9 6 2 -1.</_>
        <_>
          3 9 3 2 2.</_></rects>
      <tilted>0</tilted></_>
    <_>
      <rects>
        <_>
          0 9 13 9 -1.</_>
        <_>
          0 12 13 3 2.</_></rects>
      <tilted>0</tilted></_>
    <_>
      <rects>
        <_>
          0 10 4 6 -1.</_>
        <_>
          2 10 2 6 2.</_></rects>
      <tilted>0</tilted></_>
    <_>
      <rects>
        <_>
          0 10 4 14 -1.</_>
        <_>
          2 10 2 14 2.</_></rects>
      <tilted>0</tilted></_>
    <_>
      <rects>
        <_>
          0 14 1 2 -1.</_>
        <_>
          0 15 1 1 2.</_></rects>
      <tilted>0</tilted></_>
    <_>
      <rects>
        <_>
          0 23 2 1 -1.</_>
        <_>
          1 23 1 1 2.</_></rects>
      <tilted>0</tilted></_>
    <_>
      <rects>
        <_>
          0 28 4 2 -1.</_>
        <_>
          2 28 2 2 2.</_></rects>
      <tilted>0</tilted></_>
    <_>
      <rects>
        <_>
          0 29 28 1 -1.</_>
        <_>
          14 29 14 1 2.</_></rects>
      <tilted>0</tilted></_>
    <_>
      <rects>
        <_>
          1 0 6 16 -1.</_>
        <_>
          1 0 3 8 2.</_>
        <_>
          4 8 3 8 2.</_></rects>
      <tilted>0</tilted></_>
    <_>
      <rects>
        <_>
          1 0 23 8 -1.</_>
        <_>
          1 4 23 4 2.</_></rects>
      <tilted>0</tilted></_>
    <_>
      <rects>
        <_>
          1 3 10 2 -1.</_>
        <_>
          1 3 5 1 2.</_>
        <_>
          6 4 5 1 2.</_></rects>
      <tilted>0</tilted></_>
    <_>
      <rects>
        <_>
          1 5 2 14 -1.</_>
        <_>
          2 5 1 14 2.</_></rects>
      <tilted>0</tilted></_>
    <_>
      <rects>
        <_>
          1 5 14 2 -1.</_>
        <_>
          1 5 7 1 2.</_>
        <_>
          8 6 7 1 2.</_></rects>
      <tilted>0</tilted></_>
    <_>
      <rects>
        <_>
          1 7 4 14 -1.</_>
        <_>
          3 7 2 14 2.</_></rects>
      <tilted>0</tilted></_>
    <_>
      <rects>
        <_>
          1 16 4 4 -1.</_>
        <_>
          3 16 2 4 2.</_></rects>
      <tilted>0</tilted></_>
    <_>
      <rects>
        <_>
          1 25 10 4 -1.</_>
        <_>
          1 25 5 2 2.</_>
        <_>
          6 27 5 2 2.</_></rects>
      <tilted>0</tilted></_>
    <_>
      <rects>
        <_>
          1 29 2 1 -1.</_>
        <_>
          2 29 1 1 2.</_></rects>
      <tilted>0</tilted></_>
    <_>
      <rects>
        <_>
          2 0 9 6 -1.</_>
        <_>
          2 3 9 3 2.</_></rects>
      <tilted>0</tilted></_>
    <_>
      <rects>
        <_>
          2 13 2 6 -1.</_>
        <_>
          2 13 1 3 2.</_>
        <_>
          3 16 1 3 2.</_></rects>
      <tilted>0</tilted></_>
    <_>
      <rects>
        <_>
          2 29 2 1 -1.</_>
        <_>
          3 29 1 1 2.</_></rects>
      <tilted>0</tilted></_>
    <_>
      <rects>
        <_>
          3 0 8 4 -1.</_>
        <_>
          3 0 4 2 2.</_>
        <_>
          7 2 4 2 2.</_></rects>
      <tilted>0</tilted></_>
    <_>
      <rects>
        <_>
          3 0 20 2 -1.</_>
        <_>
          13 0 10 2 2.</_></rects>
      <tilted>0</tilted></_>
    <_>
      <rects>
        <_>
          3 0 19 4 -1.</_>
        <_>
          3 2 19 2 2.</_></rects>
      <tilted>0</tilted></_>
    <_>
      <rects>
        <_>
          3 0 20 4 -1.</_>
        <_>
          3 2 20 2 2.</_></rects>
      <tilted>0</tilted></_>
    <_>
      <rects>
        <_>
          3 11 14 16 -1.</_>
        <_>
          10 11 7 16 2.</_></rects>
      <tilted>0</tilted></_>
    <_>
      <rects>
        <_>
          3 25 2 4 -1.</_>
        <_>
          4 25 1 4 2.</_></rects>
      <tilted>0</tilted></_>
    <_>
      <rects>
        <_>
          4 1 10 4 -1.</_>
        <_>
          4 3 10 2 2.</_></rects>
      <tilted>0</tilted></_>
    <_>
      <rects>
        <_>
          4 5 6 2 -1.</_>
        <_>
          4 6 6 1 2.</_></rects>
      <tilted>0</tilted></_>
    <_>
      <rects>
        <_>
          4 11 5 18 -1.</_>
        <_>
          4 17 5 6 2.</_></rects>
      <tilted>0</tilted></_>
    <_>
      <rects>
        <_>
          4 22 4 8 -1.</_>
        <_>
          4 26 4 4 2.</_></rects>
      <tilted>0</tilted></_>
    <_>
      <rects>
        <_>
          4 28 15 2 -1.</_>
        <_>
          4 29 15 1 2.</_></rects>
      <tilted>0</tilted></_>
    <_>
      <rects>
        <_>
          5 4 1 12 -1.</_>
        <_>
          5 8 1 4 2.</_></rects>
      <tilted>0</tilted></_>
    <_>
      <rects>
        <_>
          6 0 6 4 -1.</_>
        <_>
          6 0 3 2 2.</_>
        <_>
          9 2 3 2 2.</_></rects>
      <tilted>0</tilted></_>
    <_>
      <rects>
        <_>
          6 0 21 8 -1.</_>
        <_>
          6 4 21 4 2.</_></rects>
      <tilted>0</tilted></_>
    <_>
      <rects>
        <_>
          6 1 18 28 -1.</_>
        <_>
          15 1 9 28 2.</_></rects>
      <tilted>0</tilted></_>
    <_>
      <rects>
        <_>
          6 5 2 6 -1.</_>
        <_>
          6 7 2 2 2.</_></rects>
      <tilted>0</tilted></_>
    <_>
      <rects>
        <_>
          6 7 22 5 -1.</_>
        <_>
          17 7 11 5 2.</_></rects>
      <tilted>0</tilted></_>
    <_>
      <rects>
        <_>
          7 0 22 1 -1.</_>
        <_>
          18 0 11 1 2.</_></rects>
      <tilted>0</tilted></_>
    <_>
      <rects>
        <_>
          7 7 4 4 -1.</_>
        <_>
          9 7 2 4 2.</_></rects>
      <tilted>0</tilted></_>
    <_>
      <rects>
        <_>
          9 0 2 9 -1.</_>
        <_>
          10 0 1 9 2.</_></rects>
      <tilted>0</tilted></_>
    <_>
      <rects>
        <_>
          9 0 4 1 -1.</_>
        <_>
          11 0 2 1 2.</_></rects>
      <tilted>0</tilted></_>
    <_>
      <rects>
        <_>
          9 0 13 4 -1.</_>
        <_>
          9 2 13 2 2.</_></rects>
      <tilted>0</tilted></_>
    <_>
      <rects>
        <_>
          9 1 12 2 -1.</_>
        <_>
          9 1 6 1 2.</_>
        <_>
          15 2 6 1 2.</_></rects>
      <tilted>0</tilted></_>
    <_>
      <rects>
        <_>
          9 2 12 2 -1.</_>
        <_>
          9 2 6 1 2.</_>
        <_>
          15 3 6 1 2.</_></rects>
      <tilted>0</tilted></_>
    <_>
      <rects>
        <_>
          9 12 4 8 -1.</_>
        <_>
          9 16 4 4 2.</_></rects>
      <tilted>0</tilted></_>
    <_>
      <rects>
        <_>
          9 13 4 11 -1.</_>
        <_>
          11 13 2 11 2.</_></rects>
      <tilted>0</tilted></_>
    <_>
      <rects>
        <_>
          9 22 2 3 -1.</_>
        <_>
          10 22 1 3 2.</_></rects>
      <tilted>0</tilted></_>
    <_>
      <rects>
        <_>
          10 2 6 2 -1.</_>
        <_>
          10 3 6 1 2.</_></rects>
      <tilted>0</tilted></_>
    <_>
      <rects>
        <_>
          10 9 14 19 -1.</_>
        <_>
          17 9 7 19 2.</_></rects>
      <tilted>0</tilted></_>
    <_>
      <rects>
        <_>
          11 0 12 4 -1.</_>
        <_>
          11 2 12 2 2.</_></rects>
      <tilted>0</tilted></_>
    <_>
      <rects>
        <_>
          11 0 17 4 -1.</_>
        <_>
          11 2 17 2 2.</_></rects>
      <tilted>0</tilted></_>
    <_>
      <rects>
        <_>
          11 8 12 19 -1.</_>
        <_>
          17 8 6 19 2.</_></rects>
      <tilted>0</tilted></_>
    <_>
      <rects>
        <_>
          11 29 2 1 -1.</_>
        <_>
          12 29 1 1 2.</_></rects>
      <tilted>0</tilted></_>
    <_>
      <rects>
        <_>
          12 0 6 6 -1.</_>
        <_>
          12 3 6 3 2.</_></rects>
      <tilted>0</tilted></_>
    <_>
      <rects>
        <_>
          12 2 2 10 -1.</_>
        <_>
          13 2 1 10 2.</_></rects>
      <tilted>0</tilted></_>
    <_>
      <rects>
        <_>
          12 15 2 2 -1.</_>
        <_>
          12 16 2 1 2.</_></rects>
      <tilted>0</tilted></_>
    <_>
      <rects>
        <_>
          12 26 8 4 -1.</_>
        <_>
          12 28 8 2 2.</_></rects>
      <tilted>0</tilted></_>
    <_>
      <rects>
        <_>
          12 28 2 1 -1.</_>
        <_>
          13 28 1 1 2.</_></rects>
      <tilted>0</tilted></_>
    <_>
      <rects>
        <_>
          13 0 5 2 -1.</_>
        <_>
          13 1 5 1 2.</_></rects>
      <tilted>0</tilted></_>
    <_>
      <rects>
        <_>
          13 3 2 7 -1.</_>
        <_>
          14 3 1 7 2.</_></rects>
      <tilted>0</tilted></_>
    <_>
      <rects>
        <_>
          13 3 4 20 -1.</_>
        <_>
          13 3 2 10 2.</_>
        <_>
          15 13 2 10 2.</_></rects>
      <tilted>0</tilted></_>
    <_>
      <rects>
        <_>
          13 4 10 4 -1.</_>
        <_>
          13 4 5 2 2.</_>
        <_>
          18 6 5 2 2.</_></rects>
      <tilted>0</tilted></_>
    <_>
      <rects>
        <_>
          13 4 14 4 -1.</_>
        <_>
          13 4 7 2 2.</_>
        <_>
          20 6 7 2 2.</_></rects>
      <tilted>0</tilted></_>
    <_>
      <rects>
        <_>
          13 8 2 2 -1.</_>
        <_>
          13 9 2 1 2.</_></rects>
      <tilted>0</tilted></_>
    <_>
      <rects>
        <_>
          13 22 1 2 -1.</_>
        <_>
          13 23 1 1 2.</_></rects>
      <tilted>0</tilted></_>
    <_>
      <rects>
        <_>
          13 25 4 4 -1.</_>
        <_>
          13 27 4 2 2.</_></rects>
      <tilted>0</tilted></_>
    <_>
      <rects>
        <_>
          13 28 1 2 -1.</_>
        <_>
          13 29 1 1 2.</_></rects>
      <tilted>0</tilted></_>
    <_>
      <rects>
        <_>
          13 28 5 2 -1.</_>
        <_>
          13 29 5 1 2.</_></rects>
      <tilted>0</tilted></_>
    <_>
      <rects>
        <_>
          14 0 16 1 -1.</_>
        <_>
          22 0 8 1 2.</_></rects>
      <tilted>0</tilted></_>
    <_>
      <rects>
        <_>
          14 2 7 4 -1.</_>
        <_>
          14 4 7 2 2.</_></rects>
      <tilted>0</tilted></_>
    <_>
      <rects>
        <_>
          14 9 2 8 -1.</_>
        <_>
          14 9 1 4 2.</_>
        <_>
          15 13 1 4 2.</_></rects>
      <tilted>0</tilted></_>
    <_>
      <rects>
        <_>
          14 28 7 2 -1.</_>
        <_>
          14 29 7 1 2.</_></rects>
      <tilted>0</tilted></_>
    <_>
      <rects>
        <_>
          15 0 2 27 -1.</_>
        <_>
          16 0 1 27 2.</_></rects>
      <tilted>0</tilted></_>
    <_>
      <rects>
        <_>
          15 1 14 2 -1.</_>
        <_>
          15 1 7 1 2.</_>
        <_>
          22 2 7 1 2.</_></rects>
      <tilted>0</tilted></_>
    <_>
      <rects>
        <_>
          15 6 10 8 -1.</_>
        <_>
          15 6 5 4 2.</_>
        <_>
          20 10 5 4 2.</_></rects>
      <tilted>0</tilted></_>
    <_>
      <rects>
        <_>
          15 18 2 10 -1.</_>
        <_>
          16 18 1 10 2.</_></rects>
      <tilted>0</tilted></_>
    <_>
      <rects>
        <_>
          15 19 4 4 -1.</_>
        <_>
          15 21 4 2 2.</_></rects>
      <tilted>0</tilted></_>
    <_>
      <rects>
        <_>
          16 2 9 2 -1.</_>
        <_>
          16 3 9 1 2.</_></rects>
      <tilted>0</tilted></_>
    <_>
      <rects>
        <_>
          16 7 9 18 -1.</_>
        <_>
          16 16 9 9 2.</_></rects>
      <tilted>0</tilted></_>
    <_>
      <rects>
        <_>
          16 8 2 2 -1.</_>
        <_>
          17 8 1 2 2.</_></rects>
      <tilted>0</tilted></_>
    <_>
      <rects>
        <_>
          16 22 6 5 -1.</_>
        <_>
          19 22 3 5 2.</_></rects>
      <tilted>0</tilted></_>
    <_>
      <rects>
        <_>
          16 25 12 4 -1.</_>
        <_>
          22 25 6 4 2.</_></rects>
      <tilted>0</tilted></_>
    <_>
      <rects>
        <_>
          17 0 2 4 -1.</_>
        <_>
          17 2 2 2 2.</_></rects>
      <tilted>0</tilted></_>
    <_>
      <rects>
        <_>
          17 4 8 4 -1.</_>
        <_>
          17 4 4 2 2.</_>
        <_>
          21 6 4 2 2.</_></rects>
      <tilted>0</tilted></_>
    <_>
      <rects>
        <_>
          17 6 9 4 -1.</_>
        <_>
          20 6 3 4 2.</_></rects>
      <tilted>0</tilted></_>
    <_>
      <rects>
        <_>
          17 10 4 8 -1.</_>
        <_>
          17 14 4 4 2.</_></rects>
      <tilted>0</tilted></_>
    <_>
      <rects>
        <_>
          17 11 1 2 -1.</_>
        <_>
          17 12 1 1 2.</_></rects>
      <tilted>0</tilted></_>
    <_>
      <rects>
        <_>
          18 9 12 10 -1.</_>
        <_>
          18 14 12 5 2.</_></rects>
      <tilted>0</tilted></_>
    <_>
      <rects>
        <_>
          18 11 1 2 -1.</_>
        <_>
          18 12 1 1 2.</_></rects>
      <tilted>0</tilted></_>
    <_>
      <rects>
        <_>
          18 20 6 4 -1.</_>
        <_>
          21 20 3 4 2.</_></rects>
      <tilted>0</tilted></_>
    <_>
      <rects>
        <_>
          18 25 12 1 -1.</_>
        <_>
          24 25 6 1 2.</_></rects>
      <tilted>0</tilted></_>
    <_>
      <rects>
        <_>
          19 0 2 6 -1.</_>
        <_>
          19 3 2 3 2.</_></rects>
      <tilted>0</tilted></_>
    <_>
      <rects>
        <_>
          19 0 5 8 -1.</_>
        <_>
          19 4 5 4 2.</_></rects>
      <tilted>0</tilted></_>
    <_>
      <rects>
        <_>
          19 6 6 4 -1.</_>
        <_>
          22 6 3 4 2.</_></rects>
      <tilted>0</tilted></_>
    <_>
      <rects>
        <_>
          19 18 8 8 -1.</_>
        <_>
          19 18 4 4 2.</_>
        <_>
          23 22 4 4 2.</_></rects>
      <tilted>0</tilted></_>
    <_>
      <rects>
        <_>
          20 4 10 4 -1.</_>
        <_>
          20 4 5 2 2.</_>
        <_>
          25 6 5 2 2.</_></rects>
      <tilted>0</tilted></_>
    <_>
      <rects>
        <_>
          20 5 10 4 -1.</_>
        <_>
          25 5 5 4 2.</_></rects>
      <tilted>0</tilted></_>
    <_>
      <rects>
        <_>
          20 6 4 6 -1.</_>
        <_>
          20 6 2 3 2.</_>
        <_>
          22 9 2 3 2.</_></rects>
      <tilted>0</tilted></_>
    <_>
      <rects>
        <_>
          20 8 1 15 -1.</_>
        <_>
          20 13 1 5 2.</_></rects>
      <tilted>0</tilted></_>
    <_>
      <rects>
        <_>
          20 17 6 4 -1.</_>
        <_>
          20 17 3 2 2.</_>
        <_>
          23 19 3 2 2.</_></rects>
      <tilted>0</tilted></_>
    <_>
      <rects>
        <_>
          20 22 10 2 -1.</_>
        <_>
          20 22 5 1 2.</_>
        <_>
          25 23 5 1 2.</_></rects>
      <tilted>0</tilted></_>
    <_>
      <rects>
        <_>
          21 4 8 18 -1.</_>
        <_>
          21 13 8 9 2.</_></rects>
      <tilted>0</tilted></_>
    <_>
      <rects>
        <_>
          21 29 2 1 -1.</_>
        <_>
          22 29 1 1 2.</_></rects>
      <tilted>0</tilted></_>
    <_>
      <rects>
        <_>
          22 28 8 2 -1.</_>
        <_>
          26 28 4 2 2.</_></rects>
      <tilted>0</tilted></_>
    <_>
      <rects>
        <_>
          23 0 6 1 -1.</_>
        <_>
          26 0 3 1 2.</_></rects>
      <tilted>0</tilted></_>
    <_>
      <rects>
        <_>
          23 8 6 20 -1.</_>
        <_>
          23 8 3 10 2.</_>
        <_>
          26 18 3 10 2.</_></rects>
      <tilted>0</tilted></_>
    <_>
      <rects>
        <_>
          23 13 6 1 -1.</_>
        <_>
          26 13 3 1 2.</_></rects>
      <tilted>0</tilted></_>
    <_>
      <rects>
        <_>
          23 17 4 10 -1.</_>
        <_>
          23 17 2 5 2.</_>
        <_>
          25 22 2 5 2.</_></rects>
      <tilted>0</tilted></_>
    <_>
      <rects>
        <_>
          24 0 2 1 -1.</_>
        <_>
          25 0 1 1 2.</_></rects>
      <tilted>0</tilted></_>
    <_>
      <rects>
        <_>
          24 12 6 2 -1.</_>
        <_>
          27 12 3 2 2.</_></rects>
      <tilted>0</tilted></_>
    <_>
      <rects>
        <_>
          24 24 2 1 -1.</_>
        <_>
          25 24 1 1 2.</_></rects>
      <tilted>0</tilted></_>
    <_>
      <rects>
        <_>
          25 0 1 8 -1.</_>
        <_>
          25 4 1 4 2.</_></rects>
      <tilted>0</tilted></_>
    <_>
      <rects>
        <_>
          25 10 4 1 -1.</_>
        <_>
          27 10 2 1 2.</_></rects>
      <tilted>0</tilted></_>
    <_>
      <rects>
        <_>
          26 11 2 6 -1.</_>
        <_>
          27 11 1 6 2.</_></rects>
      <tilted>0</tilted></_>
    <_>
      <rects>
        <_>
          26 14 4 3 -1.</_>
        <_>
          28 14 2 3 2.</_></rects>
      <tilted>0</tilted></_>
    <_>
      <rects>
        <_>
          26 15 2 4 -1.</_>
        <_>
          26 15 1 2 2.</_>
        <_>
          27 17 1 2 2.</_></rects>
      <tilted>0</tilted></_>
    <_>
      <rects>
        <_>
          27 1 2 1 -1.</_>
        <_>
          28 1 1 1 2.</_></rects>
      <tilted>0</tilted></_>
    <_>
      <rects>
        <_>
          27 9 2 6 -1.</_>
        <_>
          27 9 1 3 2.</_>
        <_>
          28 12 1 3 2.</_></rects>
      <tilted>0</tilted></_>
    <_>
      <rects>
        <_>
          27 9 2 5 -1.</_>
        <_>
          28 9 1 5 2.</_></rects>
      <tilted>0</tilted></_>
    <_>
      <rects>
        <_>
          27 26 2 1 -1.</_>
        <_>
          28 26 1 1 2.</_></rects>
      <tilted>0</tilted></_>
    <_>
      <rects>
        <_>
          28 2 1 2 -1.</_>
        <_>
          28 3 1 1 2.</_></rects>
      <tilted>0</tilted></_>
    <_>
      <rects>
        <_>
          28 3 2 10 -1.</_>
        <_>
          28 3 1 5 2.</_>
        <_>
          29 8 1 5 2.</_></rects>
      <tilted>0</tilted></_>
    <_>
      <rects>
        <_>
          28 5 2 10 -1.</_>
        <_>
          29 5 1 10 2.</_></rects>
      <tilted>0</tilted></_>
    <_>
      <rects>
        <_>
          28 26 2 1 -1.</_>
        <_>
          29 26 1 1 2.</_></rects>
      <tilted>0</tilted></_>
    <_>
      <rects>
        <_>
          28 29 2 1 -1.</_>
        <_>
          29 29 1 1 2.</_></rects>
      <tilted>0</tilted></_>
    <_>
      <rects>
        <_>
          29 0 1 2 -1.</_>
        <_>
          29 1 1 1 2.</_></rects>
      <tilted>0</tilted></_>
    <_>
      <rects>
        <_>
          29 0 1 8 -1.</_>
        <_>
          29 4 1 4 2.</_></rects>
      <tilted>0</tilted></_>
    <_>
      <rects>
        <_>
          29 3 1 8 -1.</_>
        <_>
          29 7 1 4 2.</_></rects>
      <tilted>0</tilted></_>
    <_>
      <rects>
        <_>
          29 5 1 2 -1.</_>
        <_>
          29 6 1 1 2.</_></rects>
      <tilted>0</tilted></_></features></cascade>
</opencv_storage>
