<?xml version="1.0"?>
<opencv_storage>
<stage0>
  <maxWeakCount>8</maxWeakCount>
  <stageThreshold>-9.1678899526596069e-01</stageThreshold>
  <weakClassifiers>
    <_>
      <internalNodes>
        0 -1 14071 -1.2879899144172668e-01</internalNodes>
      <leafValues>
        -4.2135921120643616e-01 6.3243246078491211e-01</leafValues></_>
    <_>
      <internalNodes>
        0 -1 281606 2.0382676739245653e-03</internalNodes>
      <leafValues>
        -2.3446217179298401e-01 7.9214918613433838e-01</leafValues></_>
    <_>
      <internalNodes>
        0 -1 221390 -8.8390591554343700e-04</internalNodes>
      <leafValues>
        6.0559797286987305e-01 -2.8383225202560425e-01</leafValues></_>
    <_>
      <internalNodes>
        0 -1 75189 2.1113147959113121e-03</internalNodes>
      <leafValues>
        -1.7413650453090668e-01 6.5483480691909790e-01</leafValues></_>
    <_>
      <internalNodes>
        0 -1 341011 9.6168147865682840e-04</internalNodes>
      <leafValues>
        -3.1865829229354858e-01 4.0410977602005005e-01</leafValues></_>
    <_>
      <internalNodes>
        0 -1 271374 3.4028235822916031e-03</internalNodes>
      <leafValues>
        -2.0638279616832733e-01 5.8847874402999878e-01</leafValues></_>
    <_>
      <internalNodes>
        0 -1 271518 -2.5297570973634720e-03</internalNodes>
      <leafValues>
        5.0948780775070190e-01 -2.7415233850479126e-01</leafValues></_>
    <_>
      <internalNodes>
        0 -1 25990 3.6029660259373486e-04</internalNodes>
      <leafValues>
        2.7582105994224548e-01 -5.2143502235412598e-01</leafValues></_></weakClassifiers></stage0>
</opencv_storage>
