<?xml version="1.0"?>
<opencv_storage>
<stage9>
  <maxWeakCount>6</maxWeakCount>
  <stageThreshold>-4.5919108390808105e-01</stageThreshold>
  <weakClassifiers>
    <_>
      <internalNodes>
        0 -1 3582971 -6.9508003070950508e-03</internalNodes>
      <leafValues>
        9.1304349899291992e-01 -4.3682309985160828e-01</leafValues></_>
    <_>
      <internalNodes>
        0 -1 6742948 9.9355808924883604e-04</internalNodes>
      <leafValues>
        -3.4190911054611206e-01 5.7685708999633789e-01</leafValues></_>
    <_>
      <internalNodes>
        0 -1 7297676 -4.3744333088397980e-03</internalNodes>
      <leafValues>
        -6.8255144357681274e-01 2.7292978763580322e-01</leafValues></_>
    <_>
      <internalNodes>
        0 -1 6184290 -1.7585523892194033e-05</internalNodes>
      <leafValues>
        -7.6408684253692627e-01 1.6694535315036774e-01</leafValues></_>
    <_>
      <internalNodes>
        0 -1 1690845 1.5762925613671541e-04</internalNodes>
      <leafValues>
        -2.9357641935348511e-01 5.5042707920074463e-01</leafValues></_>
    <_>
      <internalNodes>
        0 -1 721376 4.1598975658416748e-03</internalNodes>
      <leafValues>
        2.9943865537643433e-01 -6.5849500894546509e-01</leafValues></_></weakClassifiers></stage9>
</opencv_storage>
