<?xml version="1.0"?>
<opencv_storage>
<stage2>
  <maxWeakCount>5</maxWeakCount>
  <stageThreshold>-6.7422354221343994e-01</stageThreshold>
  <weakClassifiers>
    <_>
      <internalNodes>
        0 -1 6667467 -2.0001661032438278e-02</internalNodes>
      <leafValues>
        -4.7211897373199463e-01 8.7096774578094482e-01</leafValues></_>
    <_>
      <internalNodes>
        0 -1 718585 3.1235118512995541e-05</internalNodes>
      <leafValues>
        2.2211590409278870e-01 -7.6737719774246216e-01</leafValues></_>
    <_>
      <internalNodes>
        0 -1 165266 -8.7133152410387993e-03</internalNodes>
      <leafValues>
        6.9045215845108032e-01 -2.5140604376792908e-01</leafValues></_>
    <_>
      <internalNodes>
        0 -1 7864524 3.6832327168667689e-05</internalNodes>
      <leafValues>
        2.6013278961181641e-01 -8.4715646505355835e-01</leafValues></_>
    <_>
      <internalNodes>
        0 -1 3566593 7.6864408329129219e-03</internalNodes>
      <leafValues>
        -2.6751619577407837e-01 8.0982840061187744e-01</leafValues></_></weakClassifiers></stage2>
</opencv_storage>
