<?xml version="1.0"?>
<opencv_storage>
<stage1>
  <maxWeakCount>6</maxWeakCount>
  <stageThreshold>-5.8456736803054810e-01</stageThreshold>
  <weakClassifiers>
    <_>
      <internalNodes>
        0 -1 6569081 -5.8526652865111828e-03</internalNodes>
      <leafValues>
        6.5217393636703491e-01 -5.1181101799011230e-01</leafValues></_>
    <_>
      <internalNodes>
        0 -1 2813677 1.7038635909557343e-02</internalNodes>
      <leafValues>
        -3.1492984294891357e-01 7.3917841911315918e-01</leafValues></_>
    <_>
      <internalNodes>
        0 -1 4220149 1.0693425792851485e-05</internalNodes>
      <leafValues>
        3.2647588849067688e-01 -6.7251080274581909e-01</leafValues></_>
    <_>
      <internalNodes>
        0 -1 8740296 -1.1228302028030157e-03</internalNodes>
      <leafValues>
        -6.9827598333358765e-01 2.8160396218299866e-01</leafValues></_>
    <_>
      <internalNodes>
        0 -1 10310925 -5.7924754219129682e-04</internalNodes>
      <leafValues>
        -7.2777819633483887e-01 2.9087060689926147e-01</leafValues></_>
    <_>
      <internalNodes>
        0 -1 8516404 4.8877012886805460e-05</internalNodes>
      <leafValues>
        3.6187180876731873e-01 -6.0375940799713135e-01</leafValues></_></weakClassifiers></stage1>
</opencv_storage>
