<?xml version="1.0"?>
<opencv_storage>
<stage0>
  <maxWeakCount>6</maxWeakCount>
  <stageThreshold>-8.3274126052856445e-01</stageThreshold>
  <weakClassifiers>
    <_>
      <internalNodes>
        0 -1 145289 -5.2397558465600014e-03</internalNodes>
      <leafValues>
        6.0869562625885010e-01 -5.0393700599670410e-01</leafValues></_>
    <_>
      <internalNodes>
        0 -1 7865899 4.9483671318739653e-05</internalNodes>
      <leafValues>
        2.8239193558692932e-01 -7.6860785484313965e-01</leafValues></_>
    <_>
      <internalNodes>
        0 -1 7243722 9.0395202278159559e-05</internalNodes>
      <leafValues>
        2.5853660702705383e-01 -7.2720181941986084e-01</leafValues></_>
    <_>
      <internalNodes>
        0 -1 9638151 4.1368147358298302e-03</internalNodes>
      <leafValues>
        -3.8241845369338989e-01 6.1117780208587646e-01</leafValues></_>
    <_>
      <internalNodes>
        0 -1 8803756 -1.5900627477094531e-04</internalNodes>
      <leafValues>
        -7.7314490079879761e-01 3.1276762485504150e-01</leafValues></_>
    <_>
      <internalNodes>
        0 -1 4855553 4.9722351832315326e-05</internalNodes>
      <leafValues>
        3.4323406219482422e-01 -6.8164706230163574e-01</leafValues></_></weakClassifiers></stage0>
</opencv_storage>
