<?xml version="1.0"?>
<opencv_storage>
<stage6>
  <maxWeakCount>18</maxWeakCount>
  <stageThreshold>-9.9039995670318604e-01</stageThreshold>
  <weakClassifiers>
    <_>
      <internalNodes>
        0 -1 76187 -3.6634400486946106e-02</internalNodes>
      <leafValues>
        5.9633028507232666e-01 -2.7918782830238342e-01</leafValues></_>
    <_>
      <internalNodes>
        0 -1 394355 5.3604948334395885e-05</internalNodes>
      <leafValues>
        1.6844317317008972e-01 -4.2149916291236877e-01</leafValues></_>
    <_>
      <internalNodes>
        0 -1 320091 1.8431867938488722e-03</internalNodes>
      <leafValues>
        -1.7685160040855408e-01 4.4049489498138428e-01</leafValues></_>
    <_>
      <internalNodes>
        0 -1 393216 2.6844902895390987e-03</internalNodes>
      <leafValues>
        -1.2109673768281937e-01 6.3286507129669189e-01</leafValues></_>
    <_>
      <internalNodes>
        0 -1 377428 8.9143018703907728e-04</internalNodes>
      <leafValues>
        -2.6041939854621887e-01 2.8925928473472595e-01</leafValues></_>
    <_>
      <internalNodes>
        0 -1 394361 -2.0095920190215111e-03</internalNodes>
      <leafValues>
        -4.9330785870552063e-01 1.6752965748310089e-01</leafValues></_>
    <_>
      <internalNodes>
        0 -1 341346 -3.7325695157051086e-03</internalNodes>
      <leafValues>
        4.5949721336364746e-01 -1.7284515500068665e-01</leafValues></_>
    <_>
      <internalNodes>
        0 -1 24650 -2.1342342370189726e-04</internalNodes>
      <leafValues>
        -5.4227495193481445e-01 1.1500012874603271e-01</leafValues></_>
    <_>
      <internalNodes>
        0 -1 12039 -2.3522658739238977e-03</internalNodes>
      <leafValues>
        7.1317589282989502e-01 -1.2005487829446793e-01</leafValues></_>
    <_>
      <internalNodes>
        0 -1 306504 -2.9970128089189529e-03</internalNodes>
      <leafValues>
        -5.1370084285736084e-01 1.5999789535999298e-01</leafValues></_>
    <_>
      <internalNodes>
        0 -1 341618 7.9036541283130646e-03</internalNodes>
      <leafValues>
        -2.1560993790626526e-01 3.8969835638999939e-01</leafValues></_>
    <_>
      <internalNodes>
        0 -1 357170 1.6347512137144804e-03</internalNodes>
      <leafValues>
        -1.4785420894622803e-01 4.8786771297454834e-01</leafValues></_>
    <_>
      <internalNodes>
        0 -1 336570 -2.9809981584548950e-02</internalNodes>
      <leafValues>
        -6.2442952394485474e-01 1.6264998912811279e-01</leafValues></_>
    <_>
      <internalNodes>
        0 -1 213048 -6.6458224318921566e-03</internalNodes>
      <leafValues>
        5.3832477331161499e-01 -1.7475928366184235e-01</leafValues></_>
    <_>
      <internalNodes>
        0 -1 376730 -1.0326649062335491e-03</internalNodes>
      <leafValues>
        4.3708133697509766e-01 -1.7824217677116394e-01</leafValues></_>
    <_>
      <internalNodes>
        0 -1 288666 1.4756008749827743e-04</internalNodes>
      <leafValues>
        2.4458834528923035e-01 -3.3071270585060120e-01</leafValues></_>
    <_>
      <internalNodes>
        0 -1 8210 -3.0351821333169937e-03</internalNodes>
      <leafValues>
        4.2901337146759033e-01 -2.0518827438354492e-01</leafValues></_>
    <_>
      <internalNodes>
        0 -1 75784 -2.1055001765489578e-02</internalNodes>
      <leafValues>
        -7.2143387794494629e-01 1.4173263311386108e-01</leafValues></_></weakClassifiers></stage6>
</opencv_storage>
