<?xml version="1.0"?>
<opencv_storage>
<stage16>
  <maxWeakCount>41</maxWeakCount>
  <stageThreshold>-1.0147658586502075e+00</stageThreshold>
  <weakClassifiers>
    <_>
      <internalNodes>
        0 -1 61104 -2.6119600981473923e-02</internalNodes>
      <leafValues>
        4.0740740299224854e-01 -3.7561663985252380e-01</leafValues></_>
    <_>
      <internalNodes>
        0 -1 71384 -2.2899113595485687e-02</internalNodes>
      <leafValues>
        -1. -1.0022036731243134e-02</leafValues></_>
    <_>
      <internalNodes>
        0 -1 71384 -2.0929928869009018e-02</internalNodes>
      <leafValues>
        9.7717297077178955e-01 -1.0371052660048008e-02</leafValues></_>
    <_>
      <internalNodes>
        0 -1 98661 1.3840061146765947e-03</internalNodes>
      <leafValues>
        5.9793457388877869e-02 -4.6314963698387146e-01</leafValues></_>
    <_>
      <internalNodes>
        0 -1 1 -1.0586799180600792e-04</internalNodes>
      <leafValues>
        -2.4689948558807373e-01 1.0581403970718384e-01</leafValues></_>
    <_>
      <internalNodes>
        0 -1 92228 6.9856807589530945e-02</internalNodes>
      <leafValues>
        -9.0131603181362152e-02 2.4590405821800232e-01</leafValues></_>
    <_>
      <internalNodes>
        0 -1 119990 -1.6151436138898134e-03</internalNodes>
      <leafValues>
        2.3131959140300751e-01 -1.1224669218063354e-01</leafValues></_>
    <_>
      <internalNodes>
        0 -1 160282 -5.1829451695084572e-03</internalNodes>
      <leafValues>
        6.2625628709793091e-01 -5.1386028528213501e-02</leafValues></_>
    <_>
      <internalNodes>
        0 -1 38748 8.5035804659128189e-03</internalNodes>
      <leafValues>
        -8.6712300777435303e-02 2.8561803698539734e-01</leafValues></_>
    <_>
      <internalNodes>
        0 -1 89684 3.0200015753507614e-03</internalNodes>
      <leafValues>
        3.0880076810717583e-02 -7.5437420606613159e-01</leafValues></_>
    <_>
      <internalNodes>
        0 -1 49415 -5.0687761977314949e-03</internalNodes>
      <leafValues>
        4.5515197515487671e-01 -5.5364876985549927e-02</leafValues></_>
    <_>
      <internalNodes>
        0 -1 132419 5.3659742698073387e-03</internalNodes>
      <leafValues>
        -1.3168415427207947e-01 2.0629139244556427e-01</leafValues></_>
    <_>
      <internalNodes>
        0 -1 1 4.5962064177729189e-05</internalNodes>
      <leafValues>
        1.3244129717350006e-01 -2.1905049681663513e-01</leafValues></_>
    <_>
      <internalNodes>
        0 -1 161312 -9.6832425333559513e-04</internalNodes>
      <leafValues>
        -3.7016057968139648e-01 5.9612672775983810e-02</leafValues></_>
    <_>
      <internalNodes>
        0 -1 98280 -3.5827860119752586e-04</internalNodes>
      <leafValues>
        2.2220873832702637e-01 -1.2289748340845108e-01</leafValues></_>
    <_>
      <internalNodes>
        0 -1 123388 -4.0312085184268653e-04</internalNodes>
      <leafValues>
        -3.9830952882766724e-01 6.2689386308193207e-02</leafValues></_>
    <_>
      <internalNodes>
        0 -1 159108 -7.6098099816590548e-04</internalNodes>
      <leafValues>
        2.6448249816894531e-01 -9.9828362464904785e-02</leafValues></_>
    <_>
      <internalNodes>
        0 -1 146326 -4.8575982451438904e-02</internalNodes>
      <leafValues>
        -5.0494730472564697e-01 5.6496921926736832e-02</leafValues></_>
    <_>
      <internalNodes>
        0 -1 144203 -6.3078701496124268e-03</internalNodes>
      <leafValues>
        3.3609235286712646e-01 -8.5776910185813904e-02</leafValues></_>
    <_>
      <internalNodes>
        0 -1 147439 3.1140835490077734e-03</internalNodes>
      <leafValues>
        -4.6162758022546768e-02 5.0872921943664551e-01</leafValues></_>
    <_>
      <internalNodes>
        0 -1 121336 4.1946019046008587e-03</internalNodes>
      <leafValues>
        3.3948719501495361e-02 -6.7990875244140625e-01</leafValues></_>
    <_>
      <internalNodes>
        0 -1 106509 -2.1881836000829935e-03</internalNodes>
      <leafValues>
        1.8589849770069122e-01 -1.3940574228763580e-01</leafValues></_>
    <_>
      <internalNodes>
        0 -1 155016 1.1995499953627586e-03</internalNodes>
      <leafValues>
        6.2773019075393677e-02 -4.1361752152442932e-01</leafValues></_>
    <_>
      <internalNodes>
        0 -1 140000 -6.4375039073638618e-05</internalNodes>
      <leafValues>
        1.4368274807929993e-01 -1.9362181425094604e-01</leafValues></_>
    <_>
      <internalNodes>
        0 -1 27581 3.7053924053907394e-02</internalNodes>
      <leafValues>
        -8.3705551922321320e-02 3.2071492075920105e-01</leafValues></_>
    <_>
      <internalNodes>
        0 -1 73135 -2.0396328181959689e-05</internalNodes>
      <leafValues>
        1.6914547979831696e-01 -1.9958673417568207e-01</leafValues></_>
    <_>
      <internalNodes>
        0 -1 125049 -3.1769496854394674e-04</internalNodes>
      <leafValues>
        -3.3965489268302917e-01 8.3795636892318726e-02</leafValues></_>
    <_>
      <internalNodes>
        0 -1 25441 1.1650890111923218e-02</internalNodes>
      <leafValues>
        -1.3697342574596405e-01 2.0589576661586761e-01</leafValues></_>
    <_>
      <internalNodes>
        0 -1 141089 1.8467950867488980e-03</internalNodes>
      <leafValues>
        -7.6307609677314758e-02 3.5054841637611389e-01</leafValues></_>
    <_>
      <internalNodes>
        0 -1 156467 2.8042108751833439e-03</internalNodes>
      <leafValues>
        -8.4395401179790497e-02 3.0961483716964722e-01</leafValues></_>
    <_>
      <internalNodes>
        0 -1 79719 -1.0266390629112720e-02</internalNodes>
      <leafValues>
        2.5637742877006531e-01 -1.1290420591831207e-01</leafValues></_>
    <_>
      <internalNodes>
        0 -1 79827 -4.2317070066928864e-02</internalNodes>
      <leafValues>
        -5.9300637245178223e-01 5.9517629444599152e-02</leafValues></_>
    <_>
      <internalNodes>
        0 -1 13323 4.4721027370542288e-04</internalNodes>
      <leafValues>
        -1.7045323550701141e-01 1.7337591946125031e-01</leafValues></_>
    <_>
      <internalNodes>
        0 -1 158597 -1.4344593510031700e-03</internalNodes>
      <leafValues>
        2.2456064820289612e-01 -1.2132229655981064e-01</leafValues></_>
    <_>
      <internalNodes>
        0 -1 98651 -1.7046749591827393e-02</internalNodes>
      <leafValues>
        -5.4666495323181152e-01 4.8456061631441116e-02</leafValues></_>
    <_>
      <internalNodes>
        0 -1 132974 -4.2084685992449522e-04</internalNodes>
      <leafValues>
        -2.6514765620231628e-01 9.5662429928779602e-02</leafValues></_>
    <_>
      <internalNodes>
        0 -1 159494 -1.0800151154398918e-02</internalNodes>
      <leafValues>
        3.2204571366310120e-01 -8.6205840110778809e-02</leafValues></_>
    <_>
      <internalNodes>
        0 -1 48382 -5.1126102916896343e-03</internalNodes>
      <leafValues>
        3.0523890256881714e-01 -8.0169208347797394e-02</leafValues></_>
    <_>
      <internalNodes>
        0 -1 91227 -2.1309687290340662e-03</internalNodes>
      <leafValues>
        -8.8943284749984741e-01 3.0175440013408661e-02</leafValues></_>
    <_>
      <internalNodes>
        0 -1 144612 -1.3664898276329041e-01</internalNodes>
      <leafValues>
        -1.5482668578624725e-01 1.5760025382041931e-01</leafValues></_>
    <_>
      <internalNodes>
        0 -1 140474 -2.3922372609376907e-02</internalNodes>
      <leafValues>
        -4.5576459169387817e-01 5.3061980754137039e-02</leafValues></_></weakClassifiers></stage16>
</opencv_storage>
