<?xml version="1.0"?>
<opencv_storage>
<stage6>
  <maxWeakCount>8</maxWeakCount>
  <stageThreshold>-7.4237799644470215e-01</stageThreshold>
  <weakClassifiers>
    <_>
      <internalNodes>
        0 -1 7734642 3.9235793054103851e-02</internalNodes>
      <leafValues>
        -4.7490346431732178e-01 5.6097561120986938e-01</leafValues></_>
    <_>
      <internalNodes>
        0 -1 9153776 -2.3013274185359478e-03</internalNodes>
      <leafValues>
        8.7605500221252441e-01 -1.8978630006313324e-01</leafValues></_>
    <_>
      <internalNodes>
        0 -1 9214227 6.8884296342730522e-03</internalNodes>
      <leafValues>
        -2.5540304183959961e-01 5.3391367197036743e-01</leafValues></_>
    <_>
      <internalNodes>
        0 -1 4316039 -2.1857288666069508e-03</internalNodes>
      <leafValues>
        4.3858560919761658e-01 -3.4844505786895752e-01</leafValues></_>
    <_>
      <internalNodes>
        0 -1 2117596 6.0607805848121643e-02</internalNodes>
      <leafValues>
        1.9051657617092133e-01 -8.6599683761596680e-01</leafValues></_>
    <_>
      <internalNodes>
        0 -1 3515363 6.7091849632561207e-04</internalNodes>
      <leafValues>
        2.1060964465141296e-01 -7.5602149963378906e-01</leafValues></_>
    <_>
      <internalNodes>
        0 -1 1718926 3.2965415157377720e-03</internalNodes>
      <leafValues>
        -3.4468027949333191e-01 5.3967124223709106e-01</leafValues></_>
    <_>
      <internalNodes>
        0 -1 2718035 -5.1963463192805648e-04</internalNodes>
      <leafValues>
        6.1568588018417358e-01 -3.1731671094894409e-01</leafValues></_></weakClassifiers></stage6>
</opencv_storage>
