<?xml version="1.0"?>
<opencv_storage>
<stage4>
  <maxWeakCount>8</maxWeakCount>
  <stageThreshold>-6.0173577070236206e-01</stageThreshold>
  <weakClassifiers>
    <_>
      <internalNodes>
        0 -1 2093664 -9.4867739826440811e-03</internalNodes>
      <leafValues>
        8.1818181276321411e-01 -4.7565543651580811e-01</leafValues></_>
    <_>
      <internalNodes>
        0 -1 7724804 1.2833479559049010e-04</internalNodes>
      <leafValues>
        2.0463444292545319e-01 -6.7891269922256470e-01</leafValues></_>
    <_>
      <internalNodes>
        0 -1 499272 -3.9271209388971329e-03</internalNodes>
      <leafValues>
        7.1821999549865723e-01 -2.4202530086040497e-01</leafValues></_>
    <_>
      <internalNodes>
        0 -1 7518696 -3.9241326157934964e-04</internalNodes>
      <leafValues>
        -8.2225948572158813e-01 2.0189605653285980e-01</leafValues></_>
    <_>
      <internalNodes>
        0 -1 10193676 6.4688259735703468e-03</internalNodes>
      <leafValues>
        -2.4016195535659790e-01 7.0571964979171753e-01</leafValues></_>
    <_>
      <internalNodes>
        0 -1 6391340 -8.1687094279914163e-06</internalNodes>
      <leafValues>
        4.4614139199256897e-01 -3.9668589830398560e-01</leafValues></_>
    <_>
      <internalNodes>
        0 -1 1172170 6.9600408896803856e-03</internalNodes>
      <leafValues>
        -2.2124466300010681e-01 8.0818784236907959e-01</leafValues></_>
    <_>
      <internalNodes>
        0 -1 3322326 1.4850906096398830e-02</internalNodes>
      <leafValues>
        -2.1141007542610168e-01 8.3425283432006836e-01</leafValues></_></weakClassifiers></stage4>
</opencv_storage>
