<?xml version="1.0"?>
<opencv_storage>
<stage9>
  <maxWeakCount>25</maxWeakCount>
  <stageThreshold>-1.2243221998214722e+00</stageThreshold>
  <weakClassifiers>
    <_>
      <internalNodes>
        0 -1 161345 3.6140945740044117e-03</internalNodes>
      <leafValues>
        -4.3058824539184570e-01 2.1777777373790741e-01</leafValues></_>
    <_>
      <internalNodes>
        0 -1 1333 3.8266377523541451e-03</internalNodes>
      <leafValues>
        -1.2449077516794205e-01 5.2683389186859131e-01</leafValues></_>
    <_>
      <internalNodes>
        0 -1 38229 -7.8817196190357208e-03</internalNodes>
      <leafValues>
        4.0336182713508606e-01 -1.3208018243312836e-01</leafValues></_>
    <_>
      <internalNodes>
        0 -1 151296 5.0368299707770348e-03</internalNodes>
      <leafValues>
        -7.6664164662361145e-02 5.5200809240341187e-01</leafValues></_>
    <_>
      <internalNodes>
        0 -1 151296 -1.9842013716697693e-03</internalNodes>
      <leafValues>
        3.6046954989433289e-01 -1.3690356910228729e-01</leafValues></_>
    <_>
      <internalNodes>
        0 -1 28868 -1.1263692751526833e-02</internalNodes>
      <leafValues>
        5.1987373828887939e-01 -9.0968787670135498e-02</leafValues></_>
    <_>
      <internalNodes>
        0 -1 25342 3.0471747741103172e-03</internalNodes>
      <leafValues>
        -1.5358616411685944e-01 2.8548565506935120e-01</leafValues></_>
    <_>
      <internalNodes>
        0 -1 161207 -2.7833133935928345e-03</internalNodes>
      <leafValues>
        3.8781929016113281e-01 -1.1510506272315979e-01</leafValues></_>
    <_>
      <internalNodes>
        0 -1 149284 -6.7205522209405899e-03</internalNodes>
      <leafValues>
        4.7536969184875488e-01 -8.6686052381992340e-02</leafValues></_>
    <_>
      <internalNodes>
        0 -1 145469 -1.9438755698502064e-03</internalNodes>
      <leafValues>
        4.4191443920135498e-01 -1.1340284347534180e-01</leafValues></_>
    <_>
      <internalNodes>
        0 -1 80721 3.3032777719199657e-03</internalNodes>
      <leafValues>
        -1.0843330621719360e-01 3.4832698106765747e-01</leafValues></_>
    <_>
      <internalNodes>
        0 -1 25884 -1.5764513227622956e-04</internalNodes>
      <leafValues>
        -2.4993114173412323e-01 1.9165757298469543e-01</leafValues></_>
    <_>
      <internalNodes>
        0 -1 89792 -3.7253093905746937e-03</internalNodes>
      <leafValues>
        3.4672924876213074e-01 -1.3966535031795502e-01</leafValues></_>
    <_>
      <internalNodes>
        0 -1 25610 3.7364335730671883e-04</internalNodes>
      <leafValues>
        1.5075442194938660e-01 -3.2041725516319275e-01</leafValues></_>
    <_>
      <internalNodes>
        0 -1 133762 1.5502527821809053e-03</internalNodes>
      <leafValues>
        -1.4099517464637756e-01 3.5514327883720398e-01</leafValues></_>
    <_>
      <internalNodes>
        0 -1 114658 -4.2969956994056702e-03</internalNodes>
      <leafValues>
        2.7765521407127380e-01 -1.9032770395278931e-01</leafValues></_>
    <_>
      <internalNodes>
        0 -1 10071 6.2949052080512047e-03</internalNodes>
      <leafValues>
        -1.3800676167011261e-01 3.4617143869400024e-01</leafValues></_>
    <_>
      <internalNodes>
        0 -1 22167 -1.0851894039660692e-03</internalNodes>
      <leafValues>
        2.7429923415184021e-01 -1.7426505684852600e-01</leafValues></_>
    <_>
      <internalNodes>
        0 -1 157592 1.0047448449768126e-04</internalNodes>
      <leafValues>
        1.7766702175140381e-01 -2.4780644476413727e-01</leafValues></_>
    <_>
      <internalNodes>
        0 -1 25605 -1.0437810851726681e-04</internalNodes>
      <leafValues>
        -2.5606369972229004e-01 1.6822959482669830e-01</leafValues></_>
    <_>
      <internalNodes>
        0 -1 37671 -8.5975248366594315e-03</internalNodes>
      <leafValues>
        4.3160212039947510e-01 -1.1334030330181122e-01</leafValues></_>
    <_>
      <internalNodes>
        0 -1 1105 -2.4304990074597299e-04</internalNodes>
      <leafValues>
        -3.6579912900924683e-01 1.2738798558712006e-01</leafValues></_>
    <_>
      <internalNodes>
        0 -1 2215 -4.7230194322764874e-03</internalNodes>
      <leafValues>
        3.4903299808502197e-01 -1.3118508458137512e-01</leafValues></_>
    <_>
      <internalNodes>
        0 -1 139716 3.0444695148617029e-03</internalNodes>
      <leafValues>
        -1.0877218842506409e-01 3.6316180229187012e-01</leafValues></_>
    <_>
      <internalNodes>
        0 -1 89764 -2.1238068584352732e-03</internalNodes>
      <leafValues>
        -8.0580180883407593e-01 6.0196001082658768e-02</leafValues></_></weakClassifiers></stage9>
</opencv_storage>
