<?xml version="1.0"?>
<opencv_storage>
<stage12>
  <maxWeakCount>7</maxWeakCount>
  <stageThreshold>-1.0578099489212036e+00</stageThreshold>
  <weakClassifiers>
    <_>
      <internalNodes>
        0 -1 6573513 1.2172159040346742e-03</internalNodes>
      <leafValues>
        -4.3682309985160828e-01 9.1304349899291992e-01</leafValues></_>
    <_>
      <internalNodes>
        0 -1 1046971 4.0689166635274887e-02</internalNodes>
      <leafValues>
        -2.3086883127689362e-01 6.4485806226730347e-01</leafValues></_>
    <_>
      <internalNodes>
        0 -1 3315998 -2.2065043449401855e-03</internalNodes>
      <leafValues>
        -8.3121782541275024e-01 2.0607085525989532e-01</leafValues></_>
    <_>
      <internalNodes>
        0 -1 6122090 -2.6156580133829266e-05</internalNodes>
      <leafValues>
        -6.5992188453674316e-01 2.4496208131313324e-01</leafValues></_>
    <_>
      <internalNodes>
        0 -1 8653408 6.7734555341303349e-04</internalNodes>
      <leafValues>
        -2.8508952260017395e-01 5.2466571331024170e-01</leafValues></_>
    <_>
      <internalNodes>
        0 -1 9272651 8.8854907080531120e-03</internalNodes>
      <leafValues>
        2.0075409114360809e-01 -6.8491691350936890e-01</leafValues></_>
    <_>
      <internalNodes>
        0 -1 7536515 -8.2512327935546637e-05</internalNodes>
      <leafValues>
        -7.5681549310684204e-01 2.1359153091907501e-01</leafValues></_></weakClassifiers></stage12>
</opencv_storage>
