<?xml version="1.0"?>
<opencv_storage>
<stage7>
  <maxWeakCount>7</maxWeakCount>
  <stageThreshold>-1.0045107603073120e+00</stageThreshold>
  <weakClassifiers>
    <_>
      <internalNodes>
        0 -1 345213 -3.5400209017097950e-03</internalNodes>
      <leafValues>
        3.5135135054588318e-01 -5.5752211809158325e-01</leafValues></_>
    <_>
      <internalNodes>
        0 -1 8919837 7.7660013921558857e-03</internalNodes>
      <leafValues>
        -2.2212570905685425e-01 8.1446796655654907e-01</leafValues></_>
    <_>
      <internalNodes>
        0 -1 6898972 4.6789056796114892e-05</internalNodes>
      <leafValues>
        3.1435191631317139e-01 -5.1228147745132446e-01</leafValues></_>
    <_>
      <internalNodes>
        0 -1 8367005 5.4813102906337008e-05</internalNodes>
      <leafValues>
        2.3415237665176392e-01 -7.1715211868286133e-01</leafValues></_>
    <_>
      <internalNodes>
        0 -1 6421108 8.0521841300651431e-04</internalNodes>
      <leafValues>
        1.6264283657073975e-01 -9.1589349508285522e-01</leafValues></_>
    <_>
      <internalNodes>
        0 -1 8580828 -4.8198625445365906e-03</internalNodes>
      <leafValues>
        6.7422658205032349e-01 -2.4878418445587158e-01</leafValues></_>
    <_>
      <internalNodes>
        0 -1 9681038 -2.4777731596259400e-05</internalNodes>
      <leafValues>
        -7.6946592330932617e-01 2.0114246010780334e-01</leafValues></_></weakClassifiers></stage7>
</opencv_storage>
