<?xml version="1.0"?>
<opencv_storage>
<stage10>
  <maxWeakCount>7</maxWeakCount>
  <stageThreshold>-4.8793134093284607e-01</stageThreshold>
  <weakClassifiers>
    <_>
      <internalNodes>
        0 -1 8938192 6.3172886148095131e-03</internalNodes>
      <leafValues>
        -4.2652329802513123e-01 9.0476191043853760e-01</leafValues></_>
    <_>
      <internalNodes>
        0 -1 7699534 -9.8302771220915020e-05</internalNodes>
      <leafValues>
        -7.0624363422393799e-01 1.7872041463851929e-01</leafValues></_>
    <_>
      <internalNodes>
        0 -1 9868449 2.4793908232823014e-04</internalNodes>
      <leafValues>
        -2.5198644399642944e-01 5.9135806560516357e-01</leafValues></_>
    <_>
      <internalNodes>
        0 -1 8302126 3.7537072785198689e-03</internalNodes>
      <leafValues>
        -2.2296811640262604e-01 6.5312808752059937e-01</leafValues></_>
    <_>
      <internalNodes>
        0 -1 10262909 9.2832720838487148e-05</internalNodes>
      <leafValues>
        3.1447696685791016e-01 -4.8819053173065186e-01</leafValues></_>
    <_>
      <internalNodes>
        0 -1 2066043 -5.3054615855216980e-03</internalNodes>
      <leafValues>
        5.0113999843597412e-01 -3.1429305672645569e-01</leafValues></_>
    <_>
      <internalNodes>
        0 -1 10175431 -4.9118525566882454e-06</internalNodes>
      <leafValues>
        -5.8079087734222412e-01 3.1875753402709961e-01</leafValues></_></weakClassifiers></stage10>
</opencv_storage>
