<?xml version="1.0"?>
<opencv_storage>
<stage5>
  <maxWeakCount>7</maxWeakCount>
  <stageThreshold>-5.4981827735900879e-01</stageThreshold>
  <weakClassifiers>
    <_>
      <internalNodes>
        0 -1 8684810 2.4103772011585534e-04</internalNodes>
      <leafValues>
        -5.2100843191146851e-01 3.8709676265716553e-01</leafValues></_>
    <_>
      <internalNodes>
        0 -1 145603 -6.4907390624284744e-03</internalNodes>
      <leafValues>
        7.1757411956787109e-01 -2.6050943136215210e-01</leafValues></_>
    <_>
      <internalNodes>
        0 -1 8199621 -4.4368376256898046e-04</internalNodes>
      <leafValues>
        5.2594763040542603e-01 -3.4357225894927979e-01</leafValues></_>
    <_>
      <internalNodes>
        0 -1 9800929 4.9719883827492595e-04</internalNodes>
      <leafValues>
        -2.7143251895904541e-01 6.6032713651657104e-01</leafValues></_>
    <_>
      <internalNodes>
        0 -1 211689 -5.6558997130196076e-06</internalNodes>
      <leafValues>
        4.6345436573028564e-01 -3.4331664443016052e-01</leafValues></_>
    <_>
      <internalNodes>
        0 -1 906985 1.9833839032799006e-03</internalNodes>
      <leafValues>
        -2.3368409276008606e-01 7.5418412685394287e-01</leafValues></_>
    <_>
      <internalNodes>
        0 -1 8067430 -2.8211108874529600e-03</internalNodes>
      <leafValues>
        6.2195432186126709e-01 -2.5258579850196838e-01</leafValues></_></weakClassifiers></stage5>
</opencv_storage>
